digraph Tree {
node [shape=box, style="filled, rounded", color="black", fontname=helvetica] ;
edge [fontname=helvetica] ;
0 [label="X[1] <= 44.5\ngini = 0.39\nsamples = 11485\nvalue = [8454, 3031]", fillcolor="#eeae80"] ;
1 [label="X[0] <= 9.5\ngini = 0.5\nsamples = 3122\nvalue = [1435, 1687]", fillcolor="#e1f0fb"] ;
0 -> 1 [labeldistance=2.5, labelangle=45, headlabel="True"] ;
2 [label="X[1] <= 39.5\ngini = 0.48\nsamples = 1703\nvalue = [1035, 668]", fillcolor="#f6d2b9"] ;
1 -> 2 ;
3 [label="X[0] <= 5.5\ngini = 0.5\nsamples = 1030\nvalue = [547, 483]", fillcolor="#fcf0e8"] ;
2 -> 3 ;
4 [label="gini = 0.41\nsamples = 187\nvalue = [133, 54]", fillcolor="#f0b489"] ;
3 -> 4 ;
5 [label="gini = 0.5\nsamples = 843\nvalue = [414, 429]", fillcolor="#f8fcfe"] ;
3 -> 5 ;
6 [label="X[0] <= 6.5\ngini = 0.4\nsamples = 673\nvalue = [488, 185]", fillcolor="#efb184"] ;
2 -> 6 ;
7 [label="gini = 0.34\nsamples = 280\nvalue = [220, 60]", fillcolor="#eca36f"] ;
6 -> 7 ;
8 [label="gini = 0.43\nsamples = 393\nvalue = [268, 125]", fillcolor="#f1bc95"] ;
6 -> 8 ;
9 [label="X[0] <= 14.5\ngini = 0.4\nsamples = 1419\nvalue = [400, 1019]", fillcolor="#87c3ef"] ;
1 -> 9 ;
10 [label="X[1] <= 39.5\ngini = 0.45\nsamples = 1087\nvalue = [378, 709]", fillcolor="#a3d1f3"] ;
9 -> 10 ;
11 [label="gini = 0.4\nsamples = 693\nvalue = [190, 503]", fillcolor="#84c2ef"] ;
10 -> 11 ;
12 [label="gini = 0.5\nsamples = 394\nvalue = [188, 206]", fillcolor="#eef6fd"] ;
10 -> 12 ;
13 [label="X[1] <= 39.5\ngini = 0.12\nsamples = 332\nvalue = [22, 310]", fillcolor="#47a4e7"] ;
9 -> 13 ;
14 [label="gini = 0.07\nsamples = 254\nvalue = [9, 245]", fillcolor="#40a1e6"] ;
13 -> 14 ;
15 [label="gini = 0.28\nsamples = 78\nvalue = [13, 65]", fillcolor="#61b1ea"] ;
13 -> 15 ;
16 [label="X[0] <= 12.5\ngini = 0.27\nsamples = 8363\nvalue = [7019, 1344]", fillcolor="#ea995f"] ;
0 -> 16 [labeldistance=2.5, labelangle=-45, headlabel="False"] ;
17 [label="X[0] <= 8.5\ngini = 0.22\nsamples = 7550\nvalue = [6581, 969]", fillcolor="#e99456"] ;
16 -> 17 ;
18 [label="X[0] <= 5.5\ngini = 0.15\nsamples = 4547\nvalue = [4171, 376]", fillcolor="#e78c4b"] ;
17 -> 18 ;
19 [label="gini = 0.08\nsamples = 1496\nvalue = [1431, 65]", fillcolor="#e68742"] ;
18 -> 19 ;
20 [label="gini = 0.18\nsamples = 3051\nvalue = [2740, 311]", fillcolor="#e88f4f"] ;
18 -> 20 ;
21 [label="X[0] <= 10.5\ngini = 0.32\nsamples = 3003\nvalue = [2410, 593]", fillcolor="#eba06a"] ;
17 -> 21 ;
22 [label="gini = 0.29\nsamples = 1880\nvalue = [1552, 328]", fillcolor="#ea9c63"] ;
21 -> 22 ;
23 [label="gini = 0.36\nsamples = 1123\nvalue = [858, 265]", fillcolor="#eda876"] ;
21 -> 23 ;
24 [label="X[0] <= 16.5\ngini = 0.5\nsamples = 813\nvalue = [438, 375]", fillcolor="#fbede3"] ;
16 -> 24 ;
25 [label="X[0] <= 13.5\ngini = 0.48\nsamples = 692\nvalue = [410, 282]", fillcolor="#f7d8c1"] ;
24 -> 25 ;
26 [label="gini = 0.44\nsamples = 289\nvalue = [193, 96]", fillcolor="#f2c09b"] ;
25 -> 26 ;
27 [label="gini = 0.5\nsamples = 403\nvalue = [217, 186]", fillcolor="#fbede3"] ;
25 -> 27 ;
28 [label="X[0] <= 18.5\ngini = 0.36\nsamples = 121\nvalue = [28, 93]", fillcolor="#75bbed"] ;
24 -> 28 ;
29 [label="gini = 0.45\nsamples = 77\nvalue = [26, 51]", fillcolor="#9ecff2"] ;
28 -> 29 ;
30 [label="gini = 0.09\nsamples = 44\nvalue = [2, 42]", fillcolor="#42a2e6"] ;
28 -> 30 ;
}